digraph Tree {
node [shape=box] ;
0 [label="X[2] <= 0.0\nentropy = 0.998\nsamples = 34\nvalue = [16, 18]"] ;
1 [label="X[0] <= 0.0\nentropy = 0.811\nsamples = 12\nvalue = [9, 3]"] ;
0 -> 1 [labeldistance=2.5, labelangle=45, headlabel="True"] ;
2 [label="entropy = 0.592\nsamples = 7\nvalue = [6, 1]"] ;
1 -> 2 ;
3 [label="entropy = 0.971\nsamples = 5\nvalue = [3, 2]"] ;
1 -> 3 ;
4 [label="X[0] <= 0.0\nentropy = 0.902\nsamples = 22\nvalue = [7, 15]"] ;
0 -> 4 [labeldistance=2.5, labelangle=-45, headlabel="False"] ;
5 [label="entropy = 0.971\nsamples = 10\nvalue = [4, 6]"] ;
4 -> 5 ;
6 [label="entropy = 0.811\nsamples = 12\nvalue = [3, 9]"] ;
4 -> 6 ;
}